{"feature_names": ["age", "sex", "cp", "trestbps", "chol", "fbs", "restecg", "thalach", "exang", "oldpeak", "slope", "ca", "thal"], "target_names": ["Sin Enfermedad", "Con Enfermedad"], "scaler": {"mean": [53.59090909090909, 0.7024793388429752, 0.9504132231404959, 133.88429752066116, 247.5, 0.13636363636363635, 1.0454545454545454, 148.4504132231405, 0.36363636363636365, 0.9061983471074381, 1.396694214876033, 0.6818181818181818, 2.309917355371901], "std": [8.590428076961855, 0.45716749375006055, 1.0232926895176129, 16.680611837800864, 51.83462657718964, 0.34317429251230686, 0.9927422576291615, 21.451261782483837, 0.48104569292083466, 0.8493086699526692, 0.609556658333414, 0.9927422576291617, 0.5883026373983593]}, "logistic_regression": {"coef": [1.341937955807809, 0.6738890472309128, -0.7568535315032427, 1.2506884143099262, 1.080040532849727, 0.5639381456313384, 0.17833413933649606, -1.225797546916262, 0.8953426559263387, 1.1684728231310477, -0.7167531222005831, 1.7474196565712858, 0.850967138531935], "intercept": 5.431301715440127, "test_metrics": {"confusion_matrix": [[4, 2], [1, 54]], "accuracy": 95.08, "precision": 94.81, "recall": 95.08, "f1": 94.88, "precision_0": 0.8, "recall_0": 0.6667, "f1_0": 0.7273, "precision_1": 0.9643, "recall_1": 0.9818, "f1_1": 0.973}, "X_test": [[46.0, 1.0, 1.0, 124.0, 281.0, 0.0, 2.0, 120.0, 0.0, 1.1, 0.0, 1.0, 3.0], [63.0, 1.0, 0.0, 127.0, 323.0, 0.0, 2.0, 202.0, 0.0, 1.2, 1.0, 1.0, 3.0], [45.0, 1.0, 0.0, 114.0, 177.0, 0.0, 0.0, 151.0, 0.0, 1.6, 2.0, 0.0, 2.0], [41.0, 0.0, 0.0, 107.0, 232.0, 0.0, 0.0, 161.0, 0.0, 0.6, 2.0, 0.0, 2.0], [53.0, 0.0, 1.0, 141.0, 196.0, 0.0, 0.0, 175.0, 0.0, 1.4, 2.0, 1.0, 2.0], [77.0, 1.0, 2.0, 137.0, 243.0, 0.0, 2.0, 149.0, 0.0, 1.0, 2.0, 0.0, 2.0], [41.0, 1.0, 0.0, 128.0, 295.0, 0.0, 2.0, 141.0, 0.0, 1.6, 2.0, 1.0, 2.0], [75.0, 1.0, 0.0, 142.0, 212.0, 0.0, 2.0, 146.0, 1.0, 1.6, 1.0, 3.0, 3.0], [54.0, 0.0, 1.0, 163.0, 195.0, 0.0, 2.0, 151.0, 0.0, 0.1, 1.0, 0.0, 2.0], [59.0, 1.0, 2.0, 104.0, 296.0, 0.0, 2.0, 145.0, 0.0, 1.4, 1.0, 1.0, 3.0], [42.0, 1.0, 0.0, 152.0, 239.0, 0.0, 2.0, 168.0, 0.0, 2.0, 0.0, 0.0, 2.0], [56.0, 0.0, 0.0, 113.0, 237.0, 0.0, 0.0, 132.0, 0.0, 2.0, 2.0, 0.0, 2.0], [60.0, 0.0, 0.0, 135.0, 173.0, 0.0, 1.0, 134.0, 0.0, 1.2, 1.0, 0.0, 2.0], [76.0, 0.0, 3.0, 146.0, 263.0, 0.0, 2.0, 127.0, 0.0, 0.2, 2.0, 1.0, 2.0], [45.0, 1.0, 0.0, 138.0, 216.0, 0.0, 0.0, 150.0, 0.0, 0.2, 2.0, 0.0, 3.0], [50.0, 1.0, 0.0, 163.0, 303.0, 0.0, 2.0, 169.0, 0.0, 1.0, 2.0, 0.0, 3.0], [53.0, 0.0, 0.0, 130.0, 199.0, 0.0, 2.0, 118.0, 1.0, 0.7, 2.0, 1.0, 1.0], [48.0, 1.0, 2.0, 126.0, 330.0, 0.0, 2.0, 138.0, 0.0, 0.3, 2.0, 0.0, 2.0], [51.0, 0.0, 0.0, 131.0, 183.0, 0.0, 0.0, 197.0, 0.0, 1.3, 0.0, 3.0, 3.0], [52.0, 0.0, 0.0, 112.0, 258.0, 0.0, 2.0, 202.0, 0.0, 0.4, 1.0, 0.0, 3.0], [62.0, 0.0, 2.0, 114.0, 296.0, 0.0, 2.0, 125.0, 0.0, 0.2, 2.0, 0.0, 3.0], [37.0, 0.0, 0.0, 139.0, 249.0, 0.0, 2.0, 171.0, 1.0, 0.4, 2.0, 1.0, 3.0], [49.0, 0.0, 2.0, 135.0, 212.0, 1.0, 2.0, 157.0, 0.0, 0.4, 1.0, 1.0, 2.0], [42.0, 0.0, 2.0, 139.0, 205.0, 0.0, 0.0, 177.0, 0.0, 0.0, 2.0, 0.0, 2.0], [53.0, 0.0, 0.0, 126.0, 274.0, 0.0, 2.0, 142.0, 0.0, 0.6, 1.0, 0.0, 1.0], [62.0, 1.0, 0.0, 142.0, 309.0, 0.0, 0.0, 90.0, 0.0, 1.3, 2.0, 1.0, 2.0], [53.0, 1.0, 1.0, 101.0, 245.0, 0.0, 0.0, 154.0, 0.0, 1.3, 2.0, 2.0, 2.0], [68.0, 0.0, 0.0, 134.0, 354.0, 0.0, 2.0, 124.0, 0.0, 0.9, 2.0, 0.0, 2.0], [57.0, 1.0, 2.0, 149.0, 300.0, 0.0, 0.0, 185.0, 0.0, 1.2, 2.0, 0.0, 2.0], [64.0, 0.0, 2.0, 143.0, 258.0, 0.0, 2.0, 161.0, 1.0, 2.1, 1.0, 2.0, 2.0], [50.0, 1.0, 0.0, 131.0, 318.0, 0.0, 2.0, 145.0, 0.0, 0.6, 2.0, 1.0, 3.0], [46.0, 0.0, 1.0, 118.0, 308.0, 0.0, 0.0, 155.0, 0.0, 2.1, 1.0, 2.0, 3.0], [53.0, 1.0, 2.0, 150.0, 279.0, 0.0, 0.0, 152.0, 1.0, 1.4, 2.0, 0.0, 1.0], [60.0, 1.0, 2.0, 168.0, 178.0, 0.0, 2.0, 129.0, 1.0, 3.4, 2.0, 0.0, 3.0], [55.0, 1.0, 0.0, 143.0, 235.0, 1.0, 2.0, 151.0, 0.0, 0.2, 1.0, 0.0, 3.0], [60.0, 1.0, 0.0, 104.0, 341.0, 1.0, 0.0, 131.0, 1.0, 1.7, 1.0, 0.0, 2.0], [56.0, 1.0, 3.0, 150.0, 268.0, 0.0, 2.0, 112.0, 0.0, 0.2, 2.0, 0.0, 2.0], [52.0, 1.0, 0.0, 149.0, 317.0, 0.0, 1.0, 174.0, 0.0, 0.3, 0.0, 0.0, 2.0], [67.0, 1.0, 0.0, 130.0, 268.0, 0.0, 2.0, 130.0, 0.0, 0.2, 0.0, 0.0, 3.0], [52.0, 0.0, 0.0, 132.0, 126.0, 0.0, 0.0, 138.0, 0.0, 1.3, 1.0, 2.0, 3.0], [60.0, 0.0, 0.0, 113.0, 331.0, 0.0, 0.0, 190.0, 0.0, 1.3, 1.0, 0.0, 3.0], [50.0, 1.0, 0.0, 117.0, 207.0, 0.0, 0.0, 156.0, 0.0, 0.6, 1.0, 2.0, 3.0], [50.0, 1.0, 0.0, 125.0, 262.0, 1.0, 2.0, 161.0, 1.0, 0.6, 1.0, 1.0, 3.0], [61.0, 0.0, 2.0, 123.0, 215.0, 0.0, 2.0, 126.0, 0.0, 0.5, 1.0, 0.0, 3.0], [53.0, 1.0, 0.0, 130.0, 228.0, 1.0, 2.0, 124.0, 1.0, 0.4, 1.0, 2.0, 2.0], [55.0, 0.0, 1.0, 163.0, 263.0, 0.0, 0.0, 137.0, 0.0, 0.4, 2.0, 2.0, 2.0], [62.0, 1.0, 2.0, 163.0, 318.0, 0.0, 2.0, 134.0, 1.0, 0.5, 2.0, 2.0, 3.0], [69.0, 1.0, 2.0, 131.0, 126.0, 0.0, 2.0, 163.0, 1.0, 1.4, 2.0, 0.0, 1.0], [59.0, 1.0, 0.0, 108.0, 270.0, 0.0, 2.0, 104.0, 1.0, 1.3, 2.0, 0.0, 2.0], [57.0, 1.0, 1.0, 122.0, 263.0, 0.0, 2.0, 135.0, 1.0, 1.0, 0.0, 0.0, 2.0], [59.0, 1.0, 0.0, 111.0, 189.0, 0.0, 0.0, 142.0, 1.0, 0.8, 1.0, 2.0, 2.0], [49.0, 0.0, 0.0, 136.0, 242.0, 0.0, 0.0, 121.0, 0.0, 0.9, 1.0, 1.0, 2.0], [36.0, 0.0, 0.0, 149.0, 243.0, 0.0, 2.0, 147.0, 0.0, 3.8, 2.0, 0.0, 2.0], [59.0, 1.0, 1.0, 147.0, 266.0, 0.0, 0.0, 177.0, 1.0, 1.2, 2.0, 0.0, 2.0], [64.0, 1.0, 0.0, 127.0, 375.0, 0.0, 0.0, 146.0, 0.0, 0.3, 2.0, 0.0, 2.0], [43.0, 1.0, 3.0, 121.0, 250.0, 0.0, 0.0, 145.0, 1.0, 0.4, 2.0, 0.0, 2.0], [54.0, 1.0, 0.0, 142.0, 177.0, 0.0, 2.0, 131.0, 1.0, 1.1, 2.0, 2.0, 2.0], [61.0, 1.0, 1.0, 141.0, 259.0, 0.0, 0.0, 179.0, 0.0, 0.0, 2.0, 1.0, 3.0], [44.0, 1.0, 0.0, 139.0, 274.0, 0.0, 2.0, 153.0, 1.0, 0.6, 2.0, 0.0, 2.0], [60.0, 1.0, 0.0, 141.0, 237.0, 0.0, 0.0, 182.0, 1.0, 0.2, 1.0, 1.0, 3.0], [54.0, 1.0, 0.0, 120.0, 248.0, 0.0, 2.0, 123.0, 1.0, 0.1, 1.0, 0.0, 3.0]], "y_test": [1, 1, 0, 0, 0, 1, 1, 1, 1, 1, 1, 1, 1, 1, 1, 1, 1, 1, 1, 0, 1, 1, 0, 0, 1, 1, 1, 1, 1, 1, 1, 1, 1, 1, 1, 1, 1, 1, 1, 1, 1, 1, 1, 1, 1, 1, 1, 1, 1, 1, 1, 1, 1, 1, 1, 1, 1, 1, 1, 1, 1], "y_pred": [1, 1, 0, 0, 1, 1, 1, 1, 1, 1, 1, 1, 1, 1, 1, 1, 1, 1, 1, 0, 1, 1, 1, 0, 1, 1, 1, 1, 1, 1, 1, 1, 1, 1, 1, 1, 1, 1, 1, 1, 1, 1, 1, 1, 1, 1, 1, 1, 1, 1, 1, 1, 1, 1, 1, 0, 1, 1, 1, 1, 1], "y_prob": [0.9998725698359892, 0.9995647201299981, 0.4093270763603725, 0.022058864740763122, 0.7690908162458044, 0.9972697010296033, 0.9945554683866358, 0.9999999762924935, 0.9126110660228687, 0.9989731443836802, 0.9962992873218534, 0.9363615193743225, 0.9774721937706908, 0.9985561046456208, 0.86090947396359, 0.99872729384922, 0.9859185024054149, 0.883288020572959, 0.9985483190939537, 0.3114868917457099, 0.960092316651195, 0.9487068405715168, 0.9278041553970066, 0.006575496025098661, 0.8259110321302469, 0.9999936805179801, 0.971298890173941, 0.9996214508729588, 0.9383400920933778, 0.9999736323120157, 0.9992234594099115, 0.9992593960187974, 0.9867536266876488, 0.9999936525785276, 0.9993092694271666, 0.9999752004801655, 0.9877488293164067, 0.9966538783980733, 0.9999320774491776, 0.9975580399592114, 0.9738450355550122, 0.9968132433601957, 0.999909429335002, 0.9718805245918062, 0.9999908087658385, 0.9991894770143388, 0.9999992223128003, 0.8730570342651913, 0.9995911109242346, 0.9995989360857731, 0.9995971259545976, 0.9958282493335496, 0.9874736886130534, 0.9946989197602246, 0.9979722369485515, 0.4258014916942285, 0.9999116794363168, 0.9893493128259256, 0.9837465076617554, 0.9995893128683423, 0.9993562777378905]}, "neural_network": {"layers": [{"weights": [[-0.06948131709960932, 0.2590290453706922, 0.12215678654375207, 0.05028040237239583, -0.18497662049561592, -0.19495576366820325, -0.24071353969110648, 0.1974057279678765, 0.05892760335422514, 0.12359584681123478, -0.26147108301575933, 0.2677325118086407, 0.179901101394625, -0.16240044239041948, -0.18391142803871813, -0.18352545419035518, -0.10972254388314254, 0.02060693112666363, -0.04173303486683409, -0.11419466549430723, 0.060286137040590784, -0.20781778727587458, -0.1097625413181127, -0.07426768420160688, -0.026151105946570618, 0.1528316144198338, -0.1650404902564633, 0.0073668396815170884, 0.04930337799762344, -0.25887302154238556, 0.06606228932299386, -0.18136670206131703, -0.24690528015575966, 0.2572424166771086, 0.25312201439073656, 0.16645848398523883, -0.102278627306163, -0.21937183304640043, 0.09635659326510872, -0.038330942695531216, -0.21573230260344414, -0.005755375809675272, -0.2669840029094475, 0.22104067562939864, -0.13427709884207067, 0.08329604229924704, -0.10853179549950547, 0.007048713762972368, 0.03186276570633082, -0.17699704517490641, 0.2596719686462455, 0.1483074743636723, 0.24851215845392896, 0.21290980275613228, 0.04883901824636444, 0.23353549696932735, -0.2289837572454177, -0.1633513776524916, -0.25215007415627616, -0.09036364272908749, -0.05759016434081901, -0.12349532591587778, 0.17651042555618712, -0.08513299916687996], [-0.11538083259371286, 0.0308530480843121, -0.195752497582057, 0.17508534772060905, -0.2450962687238091, 0.2667827316966771, 0.15594738246982506, -0.171687823651649, -0.2829522068644681, 0.17636546532078579, 0.10880703459802774, 0.1296676967244875, 0.15231128470207184, -0.23101278880477089, -0.07685833350318765, -0.22162192721558055, 0.19867770284176528, 0.07430411304448635, -0.1005319560816221, -0.2510308585673409, -0.09886513683446253, -0.09058569977219329, 0.1342665964976584, 0.07357553261054126, 0.22182011805007734, -0.012744640695811925, -0.20902576620612337, 0.12271525411831032, 0.14369781687028327, 0.027111355572530145, 0.15712894192639568, -0.011176152218502775, 0.009725476630905163, -0.043454207331278395, -0.2585755166321191, -0.21706493117333062, -0.25788386252672024, 0.08250446259651072, -0.09895712366923827, 0.009767226837858013, 0.2309590677854147, -0.13326385681279188, -0.05560491334872864, 0.13493562661882147, -0.14936974674527842, -0.23637124004007304, -0.11102305570930529, -0.181997666949861, 0.24628289853760696, 0.1797995590392748, 0.0786733618067377, 0.1999404838732662, 0.17447014748356682, -0.17525465722833805, 0.21199135586008935, 0.015519448869719187, 0.1702588732064385, 0.2183000036319891, -0.0945956557221712, -0.21261799077077556, -0.1455130738629399, -0.04609621168502014, 0.17587575982356082, 0.19624291662651758], [-0.2687415187627417, -0.0015719971272486408, -0.0383156835056525, -0.15353015315497318, -0.2171126689601225, -0.09744625186975421, 0.24471202775941087, -0.09115367009400768, 0.003218365883660761, 0.11175749901423518, -0.07869726191869401, 0.26462859449727094, 0.26429726529359293, -0.13148960826221562, -0.008392768038151605, -0.10826285513488502, -0.11258219987969093, -0.26562227278412265, 0.06655467008681823, -0.005049577431975612, -0.24400201657132214, -0.1172877214838649, 0.23519617141011023, -0.1516512980500922, -0.20622346156329893, 0.0012261841053422678, 0.2772718622867272, -0.1455448381476241, 0.08838279596569515, 0.1411790803051153, -0.1534781184044576, 0.1205246372834993, -0.07303051317623789, 0.07861271834169278, 0.082066773464535, 0.027184530561483504, -0.22355929552351692, 0.18797657089364764, -0.09420783959035715, -0.1674395886211253, -0.2526170355478456, 0.05604789069213259, 0.10447437795898715, -0.2636441222440619, 0.011368734149598768, -0.14588639984108823, 0.07773767840251493, -0.18221077221232523, 0.10893313877699663, -0.07046328534170362, 0.24997458226647185, -0.19644294201045429, -0.08858730470366367, -0.20854048147826423, 0.23297794144562478, 0.2049490742559591, -0.14018685831309827, 0.08220061318957078, 0.1801934569881866, 0.03094667819890942, 0.013773515527802496, -0.148881314567998, -0.22299484453656723, 0.21610584974855554], [0.2158169391317037, 0.07120014611574833, -0.08735689154612464, -0.0911518236072356, 0.13373797959998987, 0.2286631598223923, 0.22215182626994678, 0.15271948763644075, 0.08548643642698284, -0.2358228115199509, -0.1873888510044452, 0.2289522541148487, 0.06305162613943584, -0.2781765914920806, -0.22885991576511575, 0.09866320082961923, -0.2811119275339265, -0.1937933631387919, 0.027090975424859554, 0.11407194847672254, 0.07957032902351702, -0.16140598070296402, 0.11246790054692588, -0.14733964588303108, -0.09719100776196692, 0.13046420717646842, 0.0813244197579035, 0.20148847056040226, 0.08163874734783355, 0.044558482291157796, -0.23165869086728702, -0.07816443463478018, -0.13794502037868095, -0.13742656577208273, 0.256386348285996, -0.059788922229918634, 0.2133637487921308, 0.07362340300917013, 0.1572523757078588, -0.0010636045076717325, 0.043732664459530925, -0.010409215184012296, -0.17022165635999087, 0.1305895104973622, -0.12906324345629613, -0.26922909889123864, 0.08558076074105632, -0.18530712781903352, 0.25306365116936413, 0.25128411806863965, 0.23254959724258362, -0.06666488026831098, -0.27655408479137644, 0.23487360977130772, -0.03381211387004379, 0.255879003751031, 0.26593441758291625, 0.1977580481165552, -0.11222789710382278, -0.056974828248287326, 0.1899438866985342, -0.10829816231436155, -0.19077994898141581, 0.02529813997897892], [0.2359892163190355, 0.10344238554574492, 0.0335986482344603, -0.22172099917758342, 0.06990656347960011, 0.28079198505970693, -0.2074424880205746, 0.015053515088763084, 0.21483095895215656, 0.14080165571213865, 0.11239344235983771, 0.10799306514676421, -0.0803742569473867, -0.1170344371432835, 0.17676165974635685, 0.16928630857530194, 0.2061228602496766, 0.23751117059962157, 0.0037721486344100986, -0.00019708211809044292, 0.1614314345808772, 0.07804245334709176, 0.11676772209776541, 0.17301183631074832, 0.2242346018542276, -0.09709576520084653, -0.07545106198887974, -0.2331705480134474, 0.049472469517209836, -0.2657823130281736, -0.012841713973824203, 0.026007029671730634, -0.12083169075956669, 0.058459265221302334, -0.25530156066890763, -0.25207114753405974, 0.1768236364873484, -0.0822297618720796, -0.2005906842771723, 0.0111389861572928, 0.14308987993009678, -0.15580361582130683, 0.0677022064978507, -0.22411090257115138, -0.24615341866082985, 0.011389218763446894, 0.017679228053011992, 0.07251532727128486, 0.12462370455563487, 0.2724920708842585, 0.01191563600732566, -0.10347612075237209, 0.17258917365702509, -0.13084562600875654, -0.02778540854469501, -0.23006168089381504, -0.27134267418150837, 0.25368717755030684, 0.17981668560488703, 0.11621031386205842, -0.05163662184829432, -0.1771403267042883, -0.18509366786418774, -0.13257212960037587], [0.027005773508955493, 0.11354916545074348, 0.08340614263737661, -0.12871367362385075, 0.26099855541092204, 0.14024332100428866, 0.032140250424146935, 0.05691133527050069, -0.0508076034525966, -0.13943108256053324, -0.07453539346936565, 0.1504616552272197, -0.269775333185488, -0.20878417955951542, -0.2577926902385089, -0.2640347335091938, 0.19807785595078992, 0.11844392164912457, -0.00913067606943343, -0.23041961571674252, -0.009583022010623759, -0.01754166947578681, -0.18526578681344433, -0.03167027732448444, -0.06412741399259972, 0.06079524424488159, 0.08073839824379804, -0.26157296048854217, -0.07703492423229644, 0.07200312068155272, 0.004548160022138237, 0.2057358165838262, 0.09563081347222467, -0.1953251942715409, -0.23644060208644943, 0.07869652660770095, -0.25818847952510743, 0.05418030269588188, 0.23824486881127813, 0.03719478463588904, -0.06676188154078364, 0.07426371237773109, -0.024697053962343098, 0.03318049480636988, 0.2534988199119119, -0.06456320818268539, 0.2503948909903453, 0.2280405939744217, -0.1771350852343545, -0.24780153099602178, -0.22638154360439475, -0.2625233365761866, -0.22530021289211696, 0.10422475859959326, -0.23447255661410948, -0.09660136124566569, 0.19979340283850047, -0.2588054221829516, 0.1677404914782976, -0.1217414292302919, -0.21867259435897565, 0.11667985879119824, 0.06639862397763836, 0.203730293904417], [0.126343703717741, 0.1759759899241935, -0.1190911354007114, -0.17624421489315797, 0.1429455071305993, 0.1686216858312423, 0.2786237192611044, -0.042879668137177696, -0.06530696778295535, 0.15274586422092665, -0.09488226305883496, 0.24679134644416967, 0.19686985632508303, -0.03662873342517377, 0.14467513321545092, 0.14718206677222467, -0.2164544277521085, 0.23049844887208254, 0.00274506528657405, 0.1889777773342273, -0.09400252319141429, 0.21467660446411274, -0.06757003250123363, -0.27974618618542296, 0.2338026944193595, -0.22717555120816532, -0.10754811869987704, 0.25898451462020944, 0.25771638349517, 0.043587236342088526, 0.07907139408945009, -0.031789228210267535, -0.12032248905975533, -0.09883872453426677, 0.08958756157361654, 0.1454461624104476, 0.1557488483422735, 0.15650984443289928, -0.22255591693034626, 0.004082569153112992, -0.2411874620938111, 0.021733392899539673, -0.03303189696058137, 0.21369911437067013, -0.08083612806651319, -0.20868557288106065, -0.19569344587494433, 0.14407569536233333, 0.06956723005458296, -0.2293922535808192, -0.23473261377275556, 0.1127341062215016, -0.23278407363386538, 0.1755518786419578, 0.1159534886490729, -0.23410663587816832, -0.23592998815144992, 0.2652193981272825, -0.07194881855904718, -0.07498781845730666, 0.17001678147569776, 0.25240996742294985, 0.2646317283245582, 0.1383670932505278], [-0.06478596336543324, -0.23842091616329322, 0.1516681410272553, 0.03640960556651613, -0.044674701301116795, 0.23006386311582044, -0.22061551125838796, -0.0028521303041144095, -0.2698947758291499, -0.014189842499217082, -0.2407340620294683, -0.21458584432768085, -0.21977766298969534, 0.08851353025069177, 0.13464257585219405, 0.053621749135498546, 0.25305391681555306, -0.07470949329585282, -0.12612047040005664, 0.2035758479486919, -0.15119862829882386, 0.25784141489423745, -0.2803169251960872, 0.26867710198009837, -0.2625636431800132, 0.2144932043314403, 0.021393928461218854, 0.2801859484059744, -0.24477191238415222, 0.03626088600852141, 0.26765448747021187, 0.01804579352796499, 0.07299015129040783, 0.10517517190008652, -0.022860486668918868, 0.0643997663329301, 0.044957554310129356, 0.2164308790103812, -0.2513176199002434, -0.12529196616619764, 0.24416580349401906, 0.21951961872835, -0.0293249134707336, 0.06716180407040839, -0.11790485809207084, -0.16679266629553618, -0.016384448411292614, -0.08457635120047223, 0.047602352976854896, -0.2430237822401164, 0.25972847989884024, 0.27936152486257043, 0.10326388555069278, 0.017858073561839202, -0.09931836214524085, 0.173383396197093, 0.10513932303437343, -0.18641685399819766, 0.2287392978059739, 0.1849191827523145, 0.2571074728333431, 0.13030163648572304, 0.06278063392089589, -0.04291705448981607], [0.23438136651003494, 0.2116417298932539, -0.24669828322137757, -0.2638771087278173, -0.06515984979891977, 0.17821162121660006, 0.27963352083498294, -0.19055122125354101, 0.058992683200492856, -0.0744773618747443, 0.25691021237366246, 0.19727791970919098, 0.19577177628855966, -0.015974781348579853, -0.053496141077132256, -0.12041568209982155, -0.24498533975031928, 0.2093868717510986, 0.1813140039370841, 0.28544868865889345, 0.26952190535898257, 0.02796106179289653, 0.14407258583511803, 0.2548753032430539, 0.1953114293051727, -0.13665538661952445, -0.0345720654216575, -0.21389672475252072, 0.2547890412775327, 0.06605348191335163, -0.15874680663002347, 0.0898439884573495, 0.06199097356074855, -0.08676506010993713, -0.21111911264181296, 0.0944972865798318, 0.00464608267714506, 0.15926995070663746, 0.006253192502494353, 0.19542018545620013, 0.0334274607708709, 0.027859726021518375, 0.21633768657385674, -0.04686174492174825, -0.19806653990783124, -0.25552156660240577, 0.13579086788906053, 0.06355438194168442, 0.12130162859610312, -0.16342472320535145, -0.20819104327690893, -0.2645571721224381, -0.0852484766856928, 0.051036886063337575, -0.059509288727920606, -0.041713345191068826, 0.23295110682445647, -0.07750044679938442, 0.01259735887475063, 0.15546152552183307, -0.06512071761378327, 0.0606809364716313, 0.19693636347842838, 0.2457870285279998], [-0.1992125130179968, 0.2447788988866734, -0.006815145673080492, -0.1287620882200972, -0.015651020488702726, 0.2754814610607069, -0.00022337247789538809, -0.08889958699726856, 0.08166464545609502, -0.15285746787931553, -0.23818901318410873, -0.21208101963855036, -0.21300138241521352, -0.1881276777739934, -0.2065003808313018, 0.08577119772437836, -0.18266133651069155, -0.08575876809902493, 0.22913759705876896, -0.011620531699591883, 0.08602732581282187, -0.18134218879057462, -0.17745104185372262, -0.2605111109818332, -0.18233546907988207, -0.11882979968282048, -0.18369148167067975, -0.22731433034264534, -0.2193663097670559, -0.015060753993013105, -0.16906391074029095, -0.08029185155152155, 0.001325931766841285, 0.11384011580379154, -0.2504520012573975, 0.16002929035962504, 0.06778740654633648, -0.23080590372720447, 0.20159359569595625, 0.22761518827654023, -0.24010925488009324, -0.11931077388472495, 0.17864221134359956, 0.13286177833872953, -0.1703814088602886, -0.15618966143443835, -0.06699125625468375, -0.013130610914506447, 0.06961107776336622, -0.07773485441488913, -0.01409353261995949, 0.13959812728767407, -0.26102530716900946, -0.1357320790247383, 0.12541893678520952, 0.2149561546360896, 0.013158689954373425, 0.01712881071705471, -0.21662144808998915, -0.028791269651213678, 0.0214766791761796, -0.15044966904605034, -0.13465555979866295, -0.07014664137356277], [-0.26143556251308103, -0.10552960894723988, -0.15359354927497898, -0.10074809634706071, -0.21934243037531972, 0.22268591417773098, 0.05715789654068278, 0.09528915226497219, 0.1543165277727124, -0.0033075465244305547, -0.2239583914307335, 0.027916659734416805, 0.04957099172793683, 0.1294829376225781, -0.03393119941649413, -0.2136009609901954, -0.12299774221218499, -0.08242624288243827, 0.08490766514348534, 0.033542320797899365, -0.0738030588077622, 0.2664054354255565, 0.06217333769429166, -0.1538255261190435, -0.22823278582122164, -0.18777459162987256, -0.1347610492984038, -0.18781927687393973, -0.17918537497136378, -0.1265576955687236, -0.18955763179626767, 0.2190759601055605, -0.23422108985798235, 0.01305491800724375, -0.04362110878418571, 0.26379703848053, -0.20921923249739455, -0.051584566144340434, 0.25450417271923426, 0.19707444992650444, 0.18329086471078013, -0.12939475122833763, -0.19020047767052017, 0.09378242077084757, 0.23279380590769871, 0.025230576920313063, 0.03545094824832602, -0.11571608114403137, 0.1574680757003971, -0.178963646941321, -0.10092749369635255, -0.04751063369344336, 0.006923261173461951, -0.13616334510681502, -0.2224442520521598, 0.055527905596467954, -0.11723640478079589, 0.04603377542517293, -0.18600932165300152, -0.017497677942045344, 0.023899308850595446, -0.2549216560257385, -0.085397376947434, -0.20046893192123766], [-0.23829832051247485, 0.2800549676521345, -0.1036632419505256, 0.17514567289058075, -0.14136200894558845, 0.10776618585493056, 0.15059071667967597, 0.04660737973861518, -0.02018213870900064, -0.05548241798393864, -0.082788986062219, 0.24484062354400649, 0.18225821748746376, 0.2524902060574466, -0.2026886376239707, 0.12130063063351676, 0.2521525218819084, -0.18214651263375672, -0.24939006385014614, 0.13991508787122112, 0.04257731352565948, 0.1842399543913588, -0.20006188656007995, 0.1718298226355028, -0.17422704357323268, -0.18311663909472858, -0.18292160436400023, 0.18118147507959934, 0.09929892365460187, 0.01132168959199861, -0.07481192672285736, 0.21046318542147943, -0.05227870279794103, 0.18413715728548877, -0.0313843375481856, -0.06988220549392166, -0.027601709525090876, -0.10541231471736387, 0.13358686469578854, -0.002988852433967613, -0.1561626506330777, 0.21641158383603087, -0.06559878880625429, 0.019543316789701816, 0.21954909256423003, 0.062177564787211655, -0.2149141338185608, 0.24007223951042975, 0.0764871371188168, -0.08864161619244645, -0.20237363335552333, 0.15968751819385316, 0.06249324335189436, 0.01634015362049748, 0.21248444995716534, 0.16160806749055373, -0.19986896519019431, -0.10965215025795243, -0.1465556241733727, 0.13040631339713143, -0.25502141308051807, 0.045772647675953015, 0.14620120198625358, 0.2036685927689422], [-0.08122438636313199, 0.18068594830841994, -0.21076130513982466, 0.19551714996989517, -0.2154147898007194, -0.06304637842605416, 0.1723815272180704, -0.1942783647784676, -0.1583186070795072, 0.13125745402679964, 0.11841893573848901, 0.08140454340180198, 0.11232586037884461, 0.029358103743563364, -0.1321729865707233, -0.09365779245262437, -0.17116661829883767, 0.23259924093833007, 0.05029181331210235, -0.06075168535631845, -0.01520490735770651, 0.24209254692338386, -0.18787341380642691, 0.04900304248675604, 0.008951529576891772, 0.055439386803946444, -0.2626573112012525, 0.2146330689655173, 0.24777283275092143, 0.0303067590858476, 0.11738497529524788, 0.2396389765306484, 0.12259027534407695, -0.2001171954001394, 0.048199409981799494, 0.05240073368361888, -0.050195021495677526, 0.13402326348478152, 0.2373660879545314, 0.23678575433583765, -0.022421105838299957, -0.20932536309693012, 0.27526029905855726, 0.18491380139987487, -0.2139661960752833, 0.22803906339680435, 0.1987451465245118, 0.01593954038713434, 0.05206284999767796, -0.05115091971656071, -0.243023992078068, -0.09807388307706606, 0.17664078598299363, -0.2701983961834332, -0.09995687216213729, -0.06321363929409067, 0.02483023926093777, 0.22972296495407177, -0.09309758919680582, -0.09251124963255532, 0.12577994816967533, -0.01963253985873416, -0.14637646001457583, -0.020102890583855483]], "biases": [-0.20806876852281408, -0.1728158291628441, -0.00835395213142853, -0.045900955340801255, 0.23914803903775178, -0.06898155281947849, 0.052252404788335045, 0.06626877324541988, -0.26819863531923627, 0.09887046152862466, -0.18693231270701666, 0.26510777007902386, -0.19119700556692143, -0.05471084589418615, -0.22716261109973424, 0.28428904034341185, -0.0004379763765786688, 0.060988228839616104, -0.23422529248266838, 0.14707942138492566, -0.16958421055321568, 0.21494679361396946, -0.16387872127846217, -0.16519968581114367, -0.25111022363356583, -0.022857457269635544, 0.029353256486213772, -0.23476005981572443, 0.16105191963402013, -0.019846782996070414, 0.021213638124365917, -0.03349053974113811, -0.050553264802312536, 0.041181818392549904, -0.1999459486014302, -0.1843952293715204, 0.19558252786012872, 0.256558796477617, -0.07835943690738517, -0.13535151017238317, 0.07726625315691675, -0.05837601021453194, -0.2575222882691064, -0.19969057723788158, 0.11396090007535356, 0.08132454555860345, -0.27077376961633776, -0.16118571208660104, -0.14257450751224715, 0.10361412598059548, -0.2668761499546076, -0.22745424551698773, 0.17511081800704742, -0.18711733514950707, 0.08006219390016514, -0.15273587585717202, -0.2168754452980009, -0.15090691056795016, 0.116975284623291, 0.1967356122518601, 0.18162163992562563, -0.05144113455601589, 0.0865997296555584, -0.1720666719545628]}, {"weights": [[-0.09592767793616742, 0.1918237818416567, -0.23638093631191376, -0.20066241612793595, -0.1525605927814795, -0.24427240671292796, -0.15219580407115432, 0.04906432741051838, -0.031664007192952516, 0.20371747532421444, 0.15125091527995355, -0.07133833420647524, -0.1124843074987054, -0.05264878207769726, 0.038416089007882584, -0.10829602994498272, 0.06829450506413814, -0.05225030616223297, 0.020225741181196414, -0.024349182092118685, -0.10982196394087289, 0.21698401269706638, 0.12441648897310463, -0.17207822297968103, 0.19170449618100494, -0.0004114535335122565, 0.18997388989121164, 0.15659332501807088, -0.029732200750685354, -0.23105149178849252, -0.10865223147087102, 0.013612619171890123], [0.07451771410962907, -0.12866426223685157, -0.17313689267978036, 0.17449781908713105, 0.23497935097498784, 0.005259287302366092, -0.15695390364445883, -0.10609125507544956, -0.2328786495520485, 0.21453677751514355, -0.19887577872702494, 0.04618900894522527, -0.10552745022476018, 0.034849371712651324, 0.06842785089259278, 0.17264467429687733, -0.13900476575135687, -0.25093675973265095, -0.18733420962216113, 0.20777624045177287, 0.17933592316242972, 0.04125018442925167, 0.04272602220027795, 0.09018698702929039, -0.15453025559547592, 0.21460073344539604, -0.04813200283397944, -0.051122429359751614, 0.01726880953424928, -0.21878203884274314, -0.15975830015400577, 0.11183962982054338], [-0.20119345715021722, 0.04407346900976578, -0.12018904353311351, -0.047924318929281416, -0.11175550518376207, -0.07962582124567542, 0.11726886628930434, -0.09417143384706726, 0.040892638981585856, -0.005911755948338217, 0.07432016073206164, 0.22606585275321045, 0.12371421905819044, -0.13497933263014666, -0.24064844379910943, -0.11187260880751483, 0.05473661460014723, -0.23028565218656882, -0.005764581197285353, 0.05573858507030102, -0.08941085148734221, 0.12818404978963632, -0.204042256379094, -0.2051452574503687, 0.12134088546708807, 0.004694833505257751, 0.08666012560959216, -0.025158329156455442, -0.11914334962105715, 0.16694552197924567, 0.15709631904543356, 0.089950766656518], [-0.1066014843492587, 0.037496392837698435, -0.06269467387816866, -0.1973340895510329, 0.20134144922700623, -0.18868443173212218, 0.23265600769146919, -0.01942391840325427, -0.14991957661401598, 0.027745331159028754, 0.17886531022764524, 0.12372020045757157, 0.16092634186502752, 0.08698540426640754, 0.08921372414854141, 0.18226399143510266, -0.11755640072164295, -0.012306844800921642, -0.14634820266877402, 0.2514331980173462, 0.2147493559992502, -0.23750071313903562, 0.09555224936685455, 0.2202881858968867, -0.15226893165801583, 0.041662997486672515, 0.20039542700662363, -0.22586021456118832, 0.10649405220374189, -0.094070899317419, 0.22014305454422467, 0.22791039816103922], [0.22968235604902035, -0.02039902184173527, 0.18784755717184637, 0.17907966946376608, -0.09804690829591352, 0.15681185602300785, -0.22442514354096743, 0.05559448953708153, -0.12720924233141911, -0.18239203892361935, -0.21909028980066636, 0.10587049850429808, -0.07333599694681306, 0.11987031741719198, -0.22422685955992755, -0.08500054866741327, 0.02719501207546893, 0.13862975169378106, -0.09678656261405803, 0.07051143127171226, 0.18578128062454885, 0.05040608881076161, -0.14100056114675816, -0.23012708867319426, 0.1925384523529615, -0.23266336567828869, 0.18002257773953814, 0.021349506310482047, 0.22711311395502917, 0.15700264470959513, 0.2561932580303892, -0.08167161543827711], [0.14129379492206084, -0.056362022349130174, -0.0022784264372910697, 0.07055945473709835, 0.17950251648624346, 0.23452256120932435, 0.14162873828911482, -0.03351997691496318, -0.03173364648357416, 0.12622474857488947, -0.13842204024648136, -0.18697586433215105, -0.06559917097943883, -0.0987640747995992, -0.10836689271389899, -0.12559772464450628, -0.22130235981147112, -0.24799763344370468, 0.2376218663934385, -0.02826367345764854, -0.06483949063417808, 0.08210721890545038, -0.14852761897821068, 0.2327568863031432, 0.150820942200786, -0.19883756594508453, -0.04845183279721244, 0.19696385977176883, 0.23001119609165765, -0.008439087678312075, 0.06397790913459335, -0.17326567123138295], [0.2532825341779397, -0.14160565740853653, 0.22843696649716314, 0.0823191967145204, 0.04638376669012496, -0.0012533251332749967, -0.12719251422728184, -0.1543330318479561, -0.13219331550065616, -0.14944202947953011, 0.1320991583018523, -0.06724434582144077, -0.21405996605777708, 0.2421694039095276, 0.18454705799033067, 0.22162728523182038, 0.25481631611081224, -0.16859711502659466, -0.05922675771764394, 0.13680326879398, 0.09063596833440657, -0.18069771324972797, 0.15043904243384898, -0.13007881123940906, -0.1304273510634509, 0.025690954506903556, 0.03892490310132689, 0.04705430590993441, -0.196638807994582, 0.19636336795185533, -0.11061030416695249, -0.19217800974894858], [0.20217424756369806, 0.22001648107657554, 0.1888235612659493, 0.16247121534916412, 0.07069653964136888, 0.017772808604714144, -0.19892324269755673, -0.03819974882560351, -0.055786000636927555, -0.11333906808081369, 0.10392329639131903, 0.005790611183439749, -0.2019694016994194, -0.13215297304990437, 0.08587747312426512, -0.20475069440504487, 0.18338528981409474, -0.009673352877113775, -0.01656869921266506, 0.05375109019252322, 0.15499096801322482, -0.08391331104662707, 0.0813201556603412, 0.04045645711706553, -0.1086488978337759, 0.19680228238662967, 0.14108516643990748, 0.08699567796808227, 0.18311527502575523, 0.1914373276783498, 0.11166678378626411, 0.16100077852631298], [0.10647652179645507, 0.08264365062484781, 0.06697956446834438, 0.13383289500101292, -0.17725068281779968, 0.182731582314855, 0.19361989740897864, -0.2278970826989242, 0.17063466995329166, -0.1791446615466743, -0.09016532319654766, 0.1294612340670336, -0.1622421355207859, 0.16676544674064964, 0.15952451567038406, 0.009996473076787079, -0.24011930706286602, -0.11401010276959518, 0.0524332858246007, 0.2482001298055686, 0.058313733870054216, -0.12772615357505415, 0.05928373271323994, 0.027136084993065426, 0.14774897508117224, -0.1899349533823629, 0.12287966201739711, 0.02786410660462555, 0.23927665534082063, -0.07137060631424978, 0.07406466920291258, 0.20885941216374942], [-0.19114966439003345, 0.21113215757041787, 0.10111139899219071, -0.20980547038391478, -0.10648831887791542, 0.09686561063957051, -0.20879736977080907, 0.04881477202214798, -0.06945617281303548, 0.06761548324499758, -0.234739731743042, 0.1935828487091192, 0.24436194064915304, 0.24213596862575174, 0.11730166769627903, -0.1772227956639291, 0.13645669340697017, -0.24439588593819755, -0.24602343586376543, -0.08051528039070636, -0.013469097131442564, 0.12784087000714361, 0.08417565118198062, -0.019377601288313354, -0.10561183436838942, 0.25619369980494167, -0.0444274990725458, -0.018816283121972522, -0.16022102837341445, 0.1549757726270719, 0.10399931118413641, -0.14665368676450358], [-0.2016820375067155, 0.0832726561646737, 0.08352989647011934, -0.10701494722384793, 0.21918099277467953, -0.1807623499163693, -0.02681583144950181, 0.2288708513383074, -0.03290064676228898, 0.07622370787623202, -0.058333356507243986, -0.10575571604187504, 0.24856528295809927, -0.03817760232533526, 0.19065100124387532, -0.12811359924721716, -0.13715736390646935, -0.24133711096179306, 0.06961260634218648, -0.05851098933654805, 0.17575273337625655, -0.0200802484921249, 0.226877638587732, -0.14981342150858068, 0.19147482234120025, 0.14533549608445787, 0.1283278120315954, 0.17916987737017667, 0.13755609134670674, 0.06994555410087615, -0.1767477144585086, -0.240519396840139], [0.2182668869929719, 0.05047599086982494, 0.15581670090706454, -0.0015702186074459102, -0.198433198663834, -0.19499898074938962, 0.10011593128945263, -0.026983952151044516, -0.14196055845076852, 0.0032381772584166, -0.22568839941701424, 0.048916699054391506, -0.10777414730934971, 0.15659010753743122, -0.10209117322521115, -0.014545287800386605, -0.23633777764377584, -0.22056725893032436, -0.06091663123878238, -0.0022424941803683616, 0.04237280752018691, -0.11190978409739308, 0.08980857086051607, 0.18790330202951966, 0.14779264234635422, -0.2225814244960922, -0.01740574597114361, -0.19016523357923767, -0.12118148440120495, 0.25116771008767524, -0.17101144945362545, -0.008176238843617624], [0.06665716402915635, 0.09359342626547296, 0.03671200662673858, -0.2381926118585167, -0.0932434220308788, 0.0013664114380789374, -0.19903406919707128, -0.06722666968397886, -0.22613088029786482, -0.20367517301887889, -0.05910283673247185, -0.17591142741162213, 0.041198116603283694, 0.10241117036421193, 0.14299100402646758, -0.14220365769161752, -0.15880618432586063, -0.20294156700855773, 0.061221552364277385, 0.11090852779707672, -0.24103095381008408, 0.21070010360499752, -0.2309467515181213, 0.02832996244148379, 0.11230041361189953, 0.19298266699209163, 0.09960503499931227, 0.15673685813819233, -0.07265442727550277, 0.1650963983255858, -0.20349732857848976, 0.19010486440234634], [0.030373839681168517, 0.15177047508285085, -0.02467367192798666, 0.07822219785889983, 0.007180823698826775, 0.1096929380256254, -0.20319806069515542, -0.2137870261533991, -0.11988080994044432, -0.16390862746843465, 0.17928333061632132, -0.13455062740529727, 0.24405270406885557, -0.07559313927431223, -0.16518463800002553, 0.15177509720265994, 0.08644376390610924, -0.003998856800080315, 0.021143302095484633, 0.11609319030496121, -0.14206465819607858, 0.24161409854490598, 0.23080258214294827, 0.08208609677575249, -0.1430249103182532, 0.09683360882059433, -0.21468338896399275, -0.22848874157456905, -0.11443555328274913, -0.013531791863983676, 0.18502126860737914, 0.10745412998854575], [0.1267896454003097, -0.0435415851652155, -0.07701041877885978, -0.06034078241683459, 0.2490551503942496, -0.23281077972590422, 0.19010478774764325, 0.04581870445483431, -0.024038803507428555, 0.11924576256844645, -0.01224420301857485, 0.19203026868247322, 0.20612952901574008, -0.033899136764479455, -0.1184779607182385, 0.05171755456829143, 0.21035427345792876, -0.14670437974604983, 0.055954993746482454, 0.0714315885110222, 0.11554338051275473, -0.1897541075170881, 0.10193402423076235, 0.2117177124542591, -0.1533980211942445, -0.12360023751150365, 0.23141019840409555, -0.1575149586705559, 0.18064997931654755, 0.0009939139189688243, -0.12204083690619773, 0.18251159634955608], [-0.019598278516388814, -0.00010425926846185365, -0.06296790043971812, 0.053114560823752106, -0.17467711039644027, -0.062177989421571, 0.2423831382964476, -0.11328577596603506, 0.08613661884158504, -0.07962524749513428, 0.1290245379052245, -0.17677782416899904, 0.24214903029106774, -0.015530531762037452, -0.13892670899437948, -0.20559181864946469, -0.15743292505389522, 0.0029359229854599963, -0.0880736259450573, 0.17221097364118992, -0.04201128089098164, -0.1331999788598868, 0.0509176333427293, 0.11108225328237015, -0.15891912527629812, -0.15860783911512172, -0.2389270998989797, 0.1253727364108658, 0.0896512870563155, -0.005048437903231149, 0.17940324587515033, 0.14535276488656362], [0.04996199748453133, 0.1764386008512316, -0.14014840580663074, -0.18794920629914022, -0.12067143196032494, -0.22742793551577462, 0.022946309276178904, 0.22568564571516914, -0.22278390249079283, -0.18229220862077006, -0.03124083685228073, 0.22423732729189988, -0.08465994293658256, 0.010960774089435101, -0.2355334935609222, -0.16810445873151528, 0.2507049704692398, 0.22580448154172522, -0.2536024735866092, 0.2331761709719594, 0.06338290801408256, 0.17664710693997163, -0.030059898686219378, 0.015557982174496996, 0.001707499628184099, 0.0909346324249402, -0.18688124803182973, -0.22938301984894996, -0.08864183539310905, 0.10958952161711098, -0.14279518021779486, 0.07925313028616868], [0.24269479383680148, -0.2103872049195166, 0.09310602033643411, -0.021442452695213565, 0.17658539329170453, -0.16891242844986237, 0.10357903728682953, 0.17654707572534908, 0.23013451908924623, 0.09917702309918972, -0.009175663698822152, 0.06688738275102184, 0.19164518794903376, 0.043131576489953895, -0.2421042091244186, 0.22323890545100156, 0.10248192379310735, 0.08099211559867717, -0.14808028823287245, 0.08728023896727413, -0.06081630264255791, 0.06808160921237189, -0.20432086430866653, 0.08667423710947185, 0.257415090230411, -0.21846540752770896, 0.23109970864173526, -0.03956289364655928, 0.19325341310949581, 0.14887537069524398, 0.040643452829593675, 0.11174077520121896], [0.19696565826874773, -0.055243277585164195, -0.07903074464710873, 0.09115170306278066, 0.14627098697722954, 0.12354664152109804, 0.15617982761364108, -0.025375359116107898, 0.1666704540838626, -0.18352283847854342, 0.014512048854298732, -0.24029533505576783, -0.08012536691072532, -0.059103871768700016, -0.058353670742589875, 0.10518209748395478, -0.049017761357469165, -0.031967396443422724, -0.13669496027006342, -0.05570945578581014, -0.14354668521685632, -0.2203525843129308, 0.044066875308806465, 0.09162202992197982, 0.06731016868558398, -0.012047465917120574, -0.06685920475600156, 0.18903308858928564, 0.01721751687852727, -0.002610566704226593, -0.23010548984550008, -0.0862177179482127], [-0.05228904431869721, -0.05794932915948731, 0.04602280779784117, 0.02354856454006907, 0.04657025396825824, 0.12490966040431245, 0.16401357492430882, 0.11568103966677076, 0.23530091105210207, -0.23518111630886612, -0.1596743347337348, -0.23830195907378204, 0.0802382203731419, 0.20647693257497776, -0.13502009081570981, 0.2206886222104918, -0.21286488104953438, 0.21094042568592758, -0.08029509096672038, -0.191595629717884, -0.014290818904322957, -0.12925878746880745, -0.11510810598085938, -0.0891881572207032, 0.15900600031919052, 0.026661880445149225, -0.1013766746061219, 0.062264249151709444, 0.11570116771621661, -0.10610395695868768, -0.03626133956219216, -0.19578186602289166], [-0.15157716698853493, 0.0830955801081879, -0.15145226729222494, 0.01946788703675785, 0.09727231562128472, -0.20420111285358816, 0.04123597568442261, -0.11441573910085731, 0.2393089524903377, -0.0011168466734870922, 0.14517567128064932, 0.032896425619733626, -0.22041620136060092, 0.07440393408365716, 0.21970855455935442, 0.058167420989644385, 0.16678079439600083, 0.18452415752681037, -0.1408608269941295, -0.1360909923047145, 0.04788886667699343, -0.052048689726360856, 0.16216467644999005, 0.20761958510511558, -0.065485119092135, -0.12450062531961538, 0.13270187693413446, -0.10561797848978055, 0.1691335502283518, -0.03038280351329685, 0.09132752664364673, -0.20952951178209966], [0.06950860731945067, -0.031167635409467865, 0.04904261649521464, -0.16072934332334993, 0.11082732010705701, 0.17395810730348119, -0.13468169654288029, -0.19567303736038272, -0.23047070144967016, 0.07845437136944547, 0.04605234891102807, 0.031102822872298753, -0.12701046147886264, -0.0472208463170805, 0.04018002707740313, 0.005750172977209945, 0.25142993257949525, -0.18570448533346298, 0.0909872998283431, -0.04051456484105419, -0.04313278575648197, 0.101274428553008, 0.08925416840126527, 0.2530238344217616, -0.1781705072125216, -0.1905095193284765, 0.10522461188960132, 0.045646046493130026, -0.10536004237384203, -0.2031210575889456, -0.20322829409581705, 0.1895460076159664], [-0.14667150789452077, -0.09591360563235211, -0.13175547326404466, -0.06582958847209805, -0.22177912393338567, 0.0033253933911354594, -0.20991178851898726, 0.15769395289855512, -0.12695252829432516, 0.02679851412190874, 0.18250565049347434, 0.08322862574037221, 0.02325294824388326, -0.08030592613942432, -0.0904123541267119, 0.09241943815890927, 0.25425581503661765, 0.0747929813252838, 0.021541444634617053, 0.12278062484065753, -0.02407601283096342, -0.22690213391095218, 0.02377994565919094, 0.2363988399104635, -0.15490200454431557, 0.10201957359680584, -0.15653713791892335, 0.023606289252232772, -0.19443158283388928, -0.017234174952723242, 0.13498886649947478, -0.08113932929811306], [0.08961366204396472, 0.14048976009430408, 0.22030203744166751, -0.1270185194751073, -0.056538403532827665, -0.18040776116359378, 0.25401678048707216, 0.22061601248021565, 0.026952653983747986, 0.17684103668333775, 0.00331847037360595, 0.06882050066608662, -0.19831689781287995, 0.13473570435991988, -0.19267116535114054, 0.17007143757627574, 0.14790338976860803, 0.09751507773917643, -0.23721125714273145, -0.09138837032598245, -0.12454698942375472, -0.07703774729623394, -0.21359099497527673, 0.22584655625016964, 0.03410917709172739, -0.08967120589247869, -0.05765325226288484, -0.019644445572331765, 0.05742785115755842, 0.014690808338522028, 0.21571498296514177, -0.008955856054732347], [0.2539515954347619, 0.16810278393340214, -0.13899176801602123, 0.22259594527930793, -0.19805343093193023, 0.15153731624529995, -0.05217851160371147, 0.19676588728316655, 0.19189938746254512, 0.16047131740833162, 0.13717124506683423, -0.08970676890697633, -0.2024042529373189, -0.040639316515572316, -0.17016222172536982, 0.105017841127518, -0.07038673093493347, 0.23111535369506908, 0.06433470400071924, 0.16910748233402403, -0.190186709927343, 0.17366271891801538, 0.20362745619832462, 0.0014880991897953362, 0.061042074342004815, 0.1396654218364536, -0.17014488893482546, 0.007525263145260016, -0.04275156171470564, -0.16921638722458607, -0.05923056839627522, -0.2227897259795197], [-0.23056802065394222, -0.18905035253390234, 0.23891838728738526, 0.031799100553223554, 0.22538751487598818, -0.04066917663269493, -0.08742480754966725, 0.00979337758535341, -0.023218312063413463, -0.1910305755037696, 0.06337912454797287, -0.13493051400658637, 0.06695004445025603, 0.08220909974094306, -0.18083762166575887, -0.21274463861902684, 0.14697238324373516, -0.02631136347661211, -0.22667581945884271, 0.25454449248631633, -0.22618138168077032, 0.09109417920052156, 0.23582079003397194, -0.12364488513117629, -0.17184857813935075, -0.183130453632571, -0.10556478305064956, -0.19218907324675688, 0.1033907451936595, -0.2124805719831355, 0.010833131193011205, 0.24133416900886911], [0.16341110821376628, 0.050098148268044033, -0.09316204459958188, 0.06811219184569389, 0.013695504858232932, -0.04321533717890229, -0.1785358534065896, 0.19940665716104006, -0.018244866095079346, -0.14823160785141848, -0.07269926345901914, -0.037381175593391804, 0.1687939598207216, 0.12335994729560298, 0.1273818237325186, -0.24043087503008406, -0.036610255823117915, -0.012798146927336823, -0.24758286411326666, -0.11391765879426992, 0.12466001734391162, -0.18672581650275735, 0.01105160587595557, -0.1357156159950333, -0.23737395900635003, -0.12296776036724692, 0.2312250276501357, 0.15694852384934702, 0.23600748616563674, 0.000409863396711479, -0.18812230618598627, 0.020968987919698368], [-0.014985550465994493, 0.16442586545984775, -0.1934590809710211, 0.0009154154984315273, -0.18260220880710823, -0.09522482273384661, 0.12635503940570392, -0.004440810210669937, -0.054372214241854594, -0.045826188045764146, -0.02812290149415606, 0.1503839723730368, 0.20383093179378764, 0.235430968978863, 0.13650372544212525, -0.08436818680671565, 0.10192729783578901, -0.03740964441913989, -0.12906436632208643, 0.17830877424650643, -0.23788678071758887, 0.19354255553368188, -0.026921134913369234, 0.07652675209201945, 0.08747835423967519, 0.20552895046670625, 0.061061239125051944, 0.06436411649856748, -0.20881785496059962, 0.0167106056365221, -0.16771893781952282, 0.11097158883458835], [0.01385107697898724, 0.08261799795683805, -0.22162923380867405, -0.20076463921942755, 0.10090461448213629, -0.22156986100756704, -0.2070529156462657, -0.23622587963735617, 0.23608243472586407, 0.12632602728055764, -0.08106425977168794, -0.09374338430221955, -0.06751816764922453, 0.14508656692786992, 0.07340021604696666, -0.1496250889144613, -0.15542772887990644, -0.20716218741018155, 0.07317211756775839, 0.13993849395615027, -0.1250447448310073, -0.24704874578888406, -0.21650662153416828, 0.2417132234183925, -0.09444604336921578, 0.14239585836524635, 0.05470785473497129, -0.05245363048098053, -0.13929280384610668, -0.18165965907916554, 0.06435163232108472, 0.1297201708345398], [0.07906785451075594, 0.008183894136323384, -0.22622461621189272, 0.24080199279081227, 0.1423644020361564, -0.11050088224790351, 0.24680872798368156, 0.0571702627863528, 0.048492494363985665, 0.12903923566986253, 0.14882569701832532, 0.08404172193218332, -0.17916861092332217, -0.07390415645966812, 0.20649110916318547, -0.13016144788442716, -0.05832426393740129, -0.03943928565700418, -0.037392344411073156, 0.06362245166779701, 0.21561119453327351, -0.13413872946199776, -0.1961235577202362, -0.14371711673860688, 0.20032948865999844, 0.0799471317015571, -0.11407778017084169, 0.16480184513888163, 0.1875182938841903, 0.1801039982412945, 0.21628954814304932, -0.12598633483969243], [0.13456342481857356, -0.027087595580243994, 0.1777694678707201, 0.11956479365662621, 0.1308864200016835, 0.07147181097373986, -0.15360603359365543, 0.029560760958848, 0.249829153401378, 0.22549175091959367, -0.2356375284794603, -0.1605438009825734, -0.17659277719308172, 0.12030889897896598, 0.15209067502062218, -0.13566922781364288, 0.00995390963173821, 0.1641963112145132, 0.11101995197093789, 0.028455254598517266, 0.03894077162406256, -0.0027193909338900993, -0.10821359749041391, 0.03994740025827234, 0.10134874190078916, 0.19404170406480656, 0.06086375884467212, 0.13750537608215066, -0.16250800450222733, -0.012404481461254216, -0.2382399294595868, -0.1341729842769354], [0.12097593383077065, 0.2383759743342988, -0.19307089364895325, -0.04219321339239365, 0.14268539914954836, -0.15547700801686767, 0.034708255339864935, 0.1241124979843491, 0.06580796090081054, -0.14818280614508628, -0.08002997840896864, 0.1495878320505936, 0.03419158757415597, -0.23984028993684944, 0.12389329324088685, -0.22465285766038692, 0.13059478835715868, -0.15504450600225242, 0.22195486148627996, -0.05864545334432621, -0.0939066644519751, -0.18325300111430212, -0.10468429185887652, 0.19618019488289154, 0.2558235011654528, -0.05909300681817161, -0.03284559187162928, 0.11584406306331455, 0.20085398142445027, 0.05423885334908899, -0.050016697105889046, -0.05129349502552693], [0.10421906638792637, -0.25458008451804204, 0.06229591729190711, -0.06614334274658734, 0.14185356957627726, -0.20892823923623569, 0.05067977562046838, -0.0033623896171399133, 0.07842998253089911, -0.2116161418653233, 0.033540085097635036, 0.03684854448969461, 0.035075811570847264, 0.058168614729338486, 0.08083851960666195, 0.15974900791429966, -0.1090813124817142, 0.15615436909601543, -0.006722472575541905, -0.20497780855073083, -0.22494965147266585, -0.0873515080780472, 0.13596512388445214, 0.11121522444964094, 0.15125866388345463, 0.015349952688285323, -0.03668818974471037, -0.16928593366003553, -0.07930707197318371, -0.027671431774308603, -0.19866674323238934, -0.1429444991244349], [0.05659310428892503, 0.11027168484307402, 0.25699799160719916, 0.2239737759939733, 0.06429061595772702, -0.04653631642895026, 0.0758646118902777, 0.15042582254155937, -0.183079278012493, -0.03833349093191965, 0.16221973626021452, -0.05051445014090527, 0.04348773788046659, 0.051540058713051014, -0.1647121487140149, -0.06115417686957384, -0.07503656192854305, -0.24445711273358772, -0.2448743575410918, 0.17350537589894316, -0.12059926392378242, 0.001576148960531014, -0.10792725873057317, 0.22767543814368554, -0.11293945569472652, -0.02779158898571282, 0.17889412158084048, 0.1785911399304015, -0.1492853989931345, 0.15894124144800298, -0.013268847462109561, -0.016003650672346627], [-0.17600473896526062, -0.21712281443926962, 0.1211289061654968, 0.005237201970166074, -0.03840549421618961, 0.10742735353154995, 0.13964197111812296, -0.16317133164288097, 0.0625150834965405, -0.17575035936492817, 0.11823762333001653, 0.08612865505699727, 0.2355894734405132, -0.20803498104394727, -0.22831361182992294, -0.10163974583473702, -0.11157659980075049, -0.13327755722233553, 0.19719923542605358, -0.11783553505538237, -0.12030235073172134, 0.12228326246763983, -0.032123363188028935, 0.14580708924613037, -0.2095572900201103, 0.0013509194496399506, -0.2403942607562509, -0.21126530516570605, 0.2107488044874602, -0.17307117072572178, 0.023867300059512018, -0.051698109432656764], [-0.06916698494758731, 0.19315311979502603, -0.23234241804534916, 0.08885603738725799, 0.225290680600458, 0.02340014769207697, 0.22496002388124564, -0.2164182341348224, -0.0337284885756738, -0.11431050758200167, 0.10840707428239353, 0.24750533091029675, -0.1153266759731708, 0.08395121101492091, -0.15853490925480265, 0.0397230447764975, -0.010725379658408444, 0.22973878193669323, 0.04818150389824492, -0.0683601760470615, -0.2002787300084292, -0.18030244708442095, -0.14484675038287542, -0.11751287365528804, 0.18203705834516049, 0.03803447402642719, 0.005442625868806676, -0.1855296605452269, 0.18715246383082237, 0.11813898210118388, -0.2091982146407462, 0.0978396521193621], [0.029375710624802025, -0.21620609446003433, -0.013444929056630237, -0.0010556367345333085, -0.17373840947043756, 0.21514606172647993, 0.18246224258436325, 0.09216211029227404, -0.011155268929715466, -0.036499817072062304, 0.06791814729060888, 0.030478015827879425, -0.21140401302406683, 0.013731867115191903, 0.14654371241834896, -0.012798245418584467, -0.2168358221730318, 0.13639944689260652, -0.15546217539473564, -0.11304492783918763, -0.1749415873679931, -0.09252330979586487, 0.12091329711377519, 0.01749162982777073, -0.14013513403252373, 0.19606864421292314, 0.1825457202914326, 0.19236609119533266, -0.12296728872313632, -0.01670204925600839, 0.24970605396985912, 0.12864762910699518], [-0.22952277090041406, -0.22452712599865488, -0.012045670621223794, 0.21045105578831114, 0.012213773211591072, -0.007456408509439332, -0.19052737083885582, 0.08480683213932862, 0.1679703050399573, -0.05326996461955419, 0.13090037521081493, 0.23858772023178637, -0.1413386106173921, 0.018530641356715935, -0.11394203078363398, 0.15377689244962361, 0.04488510938560781, 0.06265475831018079, 0.1420643499010268, -0.04502580045119009, 0.20154315038818058, 0.010417169285832667, -0.1777069151006094, 0.10540457269669332, 0.15357233200920925, -0.08422204503235718, 0.1718245201589276, 0.2096143481570185, -0.1047539626588652, 0.2485064636825162, -0.17292795872203787, -0.15508447833300984], [-0.15020027584136406, 0.1892621589293025, 0.08437724118373154, -0.1660786368083829, -0.03720215239572697, 0.05000175600879991, -0.2008989970039501, 0.1987700880784313, 0.15965445231760195, 0.010527931983332845, 0.22581116758522815, -0.033159782157784715, 0.24969667976293608, 0.0917423761580687, 0.06079881261273843, -0.15974024033978437, 0.1988524497060005, -0.04315470520658105, -0.17554349744622524, -0.23623376660966594, 0.022322947315330865, 0.005870703219221933, 0.1023388635072321, 0.20284844986134032, -0.2023440139701442, 0.12268232794481564, -0.16356413927827423, 0.18523114715565406, 0.1673518287004939, 0.028208112936114565, 0.11201858566978337, -0.1003500520552775], [-0.006810660961962538, 0.15345326964624117, -0.013360341705442924, -0.06366030612797885, -0.010187848154109037, 0.15671297555700198, -0.0751991037203131, -0.15598167053626447, 0.11365662112498531, 0.17068169901896746, -0.20726319691892398, -0.12212003191756143, -0.1716150380346652, -0.06845823103105408, -0.031517336195569866, 0.1317349454399228, 0.08320851832399385, 0.05284375947402206, -0.07997596581614301, 0.1780002533919532, -0.021138800568493165, 0.2320377913146409, 0.059827098172223016, -0.17941921839756234, 0.09583631825933724, -0.08077228296262534, 0.08616846746524805, -0.20753141297212427, -0.15491040081668117, 0.18555642655310656, -0.12873864957648867, 0.16139257639866003], [-0.1037843078551037, 0.0644006069046764, 0.10278321504391186, 0.011926770024191784, -0.10414931873338007, -0.14883478878957485, -0.22619618860138874, -0.0913383790067678, 0.08431253505852172, 0.22597173664469394, 0.1786545027527752, 0.1401132731971824, 0.1517460381446687, 0.08950608259094353, -0.12591048248585102, 0.21025491731997212, 0.0917516348310751, 0.024371011639560184, -0.20169336886746944, -0.02014593047172898, -0.024088832421489393, 0.17576963046599475, 0.016779649594013783, -0.052102209078456654, 0.2458289309091257, -0.18838955715167216, -0.044635455522453606, -0.22363562623962516, 0.12711238304296713, 0.21576562999640145, -0.10379842716837902, 0.1735375597659929], [-0.09668459153481478, 0.19776586314197786, 0.13356554087060674, 0.1595707657727047, -0.24697390627277693, 0.2243136639831281, 0.12079792178141112, -0.09099038466204808, 0.1722796637915403, -0.10777190963938216, 0.179118327448772, -0.18730985283705925, 0.10799363245325967, 0.027448371806349067, -0.20915352608991777, -0.12193649566066138, -0.23687189428894467, -0.022478974898196353, -0.10537902142842931, 0.05589467623118981, -0.10754721785238883, -0.10710319825956581, 0.11434560898817633, -0.2190568324362847, 0.20880615878469758, 0.18300255379948557, 0.07683986589923433, 0.053580038285225916, 0.20343343886372814, -0.1501383551254016, -0.2032160463380928, -0.13641436311421054], [0.15486304163582085, -0.23889448878172773, 0.04892620144853496, 0.2548335046213373, 0.17108581403725334, 0.003355554511462321, -0.21096250507649258, 0.17294303693933535, 0.05707158046997949, -0.18636239330564686, -0.21063805055762916, 0.21201562831085416, 0.09191992157815473, 0.17220757370182563, 0.1825203405371189, 0.04292950685797291, 0.015344579646953533, -0.04241919294222323, -0.09706036967007516, -0.025017454297078464, 0.1295698919082917, 0.04514161189129648, 0.18867890839528698, -0.021072610627212978, 0.06103216149338784, 0.07253349237731248, 0.03831029927905841, 0.10856662647699894, -0.12357142140273952, 0.013409808530383089, -0.19114997173158238, -0.06528037320629586], [0.001325215964406816, 0.06899096577068146, 0.23230362875958874, 0.05742122311175154, 0.11522158855312109, -0.003625221806365022, 0.07383858893712676, -0.20726936470876384, -0.11576404566192565, -0.06167161565215158, -0.02100676260266782, -0.22001588880441042, -0.17274337981147364, -0.10444921937487096, 0.22900154994046307, -0.07687713001321939, -0.0017440132470325016, -0.15792676011464274, 0.04946578658131547, -0.10250348612395904, -0.1540544933989999, 0.0007720837913510161, -0.2545504804497776, -0.23867257511032858, -0.13329419558076364, -0.22405068972413242, -0.20281745875651025, -0.07315645680796322, 0.1585284841757891, 0.04291223019375127, 0.013610005748710841, -0.11016321403132845], [0.22332092214366356, -0.059072523443621294, -0.2005324578332028, 0.06565939123511051, -0.2004680949976692, -0.08464639687620797, 0.010554828812762457, 0.19418129181664345, 0.004407109226051508, 0.10791780207816555, 0.2389660943360193, -0.17723921417719324, -0.10627131412882532, -0.04572188564602897, -0.045934040685891714, -0.03715309656244118, 0.21143655582956566, 0.10254294448505254, 0.046906301761040506, -0.08837071303407247, 0.15443501286674693, 0.22004526341910954, 0.15336394399870182, -0.24182765134305192, 0.0759318098044878, -0.21822360044677094, -0.12820929517892518, -0.21379922427153472, 0.059457396648127096, 0.10072276073749002, -0.1886702940644302, -0.06467847685457784], [-0.014534718273865706, -0.07261783683117488, -0.18385800769244617, -0.03397279665591567, 0.11829782548030957, -0.22152924923300815, -0.20388734871761327, -0.06605851124546028, 0.22827687795203544, 0.09163531865674018, 0.08211495905437363, -0.06131344278555032, 0.05363668726937627, -0.23788002250945076, 0.061268340339500314, 0.21385664312154623, 0.06392103722207636, 0.18127266101696787, 0.10526299010454236, -0.1827286239978966, 0.19398124662030922, -0.2242903063048953, 0.010362371464156398, -0.17132828416592494, -0.2363869231516641, -0.031536515671955576, -0.10973447864612125, -0.00044405490159420255, 0.04604026562976804, -0.22072764579455728, -0.18393015847930308, 0.021992049164832418], [-0.07104845539401697, 0.10694202312315645, 0.08322014618462287, 0.17938880560726686, 0.08923667516208066, -0.04195371242674397, 0.09287163439130725, -0.10512655583662532, -0.08921222811994826, 0.15135293602642408, -0.03415095743283622, 0.15654744242659685, 0.1675784100334925, 0.18593492092770672, 0.20233077112490847, -0.02841217475606836, -0.08319974119134599, 0.035056757170475565, -0.06997595779775632, 0.05720910063383864, 0.09585946060555965, 0.08691460927194657, -0.06983668428937173, -0.15941342445692283, -0.027412952859027218, -0.17231783558044597, 0.18791412591214485, -0.07207390626317559, -0.1653226841535095, -0.229882630591353, 0.07878660133733398, 0.06119172071979136], [-0.07190586790655049, -0.2217642720747764, -0.03810837863236689, -0.08721569885684055, 0.08104600997304204, 0.04540318364048164, -0.05989617210941926, -0.13391060425236392, 0.25194890585516755, -0.015676774204584246, 0.08640081593122867, -0.17182008735445897, -0.0001741673046738117, -0.22867017887908986, -0.0031548719442550132, 0.2392648559236906, -0.0501112006375606, -0.23723130746168727, -0.23955201111424423, -0.048910693981615426, -0.17767660112419148, -0.24610266385956467, 0.12056215829047923, -0.01326341121504842, -0.09765163785304684, 0.2074159163268228, -0.19950552853545997, 0.235471110531285, -0.08524389532620583, 0.20195242113743714, 0.05836294536274699, 0.15575871571380673], [0.24948891795767633, -0.11322798192557965, 0.23777543368319093, -0.04789799948234227, -0.06440921317735632, -0.08720743466644734, 0.028006123066188167, -0.16585355994865825, 0.034211536519509006, 0.027690586328417408, 0.12367054221819648, 0.17456487324468273, -0.022733667501770072, -0.09133028643756318, -0.12710032399145874, -0.14534744780965606, -0.21453627271842698, -0.08021545107759753, -0.12212602372763097, 0.24061142151859785, 0.022198741269470357, -0.08378094155981855, 0.03304366930738814, -0.17305816012894337, -0.020401044704495684, 0.07044687050779805, -0.013206509099560483, -0.04141045307313934, 0.25433585865684294, 0.19775590614192823, 0.06889088312595411, 0.028042832728198467], [0.06796820354860235, -0.15697978575031005, -0.04516182552953008, -0.2234075262638463, -0.01797720606884908, 0.014546718360793685, -0.1286546626974361, 0.23974833150172162, 0.21250584078860146, 0.1188942184014486, 0.00901196397113969, 0.1929286149884599, -0.1768086131936422, 0.15296010733332735, -0.19460265820733702, 0.15471234557590738, -0.10453284710238561, 0.18096562269341412, 0.21475828456780569, -0.16810153977141615, -0.026197233264402535, 0.23288266896481652, -0.015938589848045626, 0.189621523701174, 0.05202715735200074, -0.05539503255300495, -0.11444245079612694, -0.14189575946835606, 0.13855970415471178, -0.04896275542326252, 0.013462634033072704, -0.011302539632578684], [0.04529518882228438, 0.17557417034046086, 0.24771442970814433, -0.039296951844579486, 0.1568611034482079, 0.12571611301044888, 0.04375326348346311, 0.23533272078601972, -0.14342316114156692, -0.1898299273873335, 0.16969445607820843, -0.02302617716453832, 0.1808089622515755, 0.2038284259202135, -0.22494112599072486, 0.19850426224480536, -0.019336243060572543, -0.0014062610892928225, 0.05752806865140568, 0.2204903924551869, -0.24570115104432796, -0.018185256651501582, 0.0871197847015802, 0.11848316973250134, 0.10345556779381594, -0.17593083192031897, -0.10686078342772025, -0.0635282061838334, 0.15957415752169798, -0.10400694166546272, -0.13784467762577, 0.22181444587305554], [-0.23789091116100636, 0.2411006547855342, 0.09568901758042411, 0.17180063024593809, -0.10980870955826569, -0.2503087957832509, 0.12658170639829694, 0.174640445317277, 0.12771660346483768, -0.17147749707715942, 0.11892451272164002, 0.14239310190081692, 0.08714445411547964, 0.14086274567681364, 0.16650595264466647, 0.06462815397686528, -0.1977872451714177, -0.012303576360426005, -0.21682764024659898, -0.03841667185946626, -0.05416799003061675, -0.22447693528936533, -0.08304909086599292, -0.18666225634393524, 0.16175996237002202, 0.2315609421641596, -0.22099329633483, 0.23488951762285493, 0.019219423962335863, -0.0925885121856942, -0.20437802445057404, -0.007436141300847546], [0.15482917527384155, 0.09601997039670135, -0.21773694985409886, -0.20759383693618147, -0.05572298879430398, -0.10932301492974417, -0.12619386551793796, -0.10192388870057842, 0.15908370271334077, 0.22152444687226547, -0.05507208389754531, 0.21079278473628713, -0.08160139148937955, -0.00410535515344337, -0.14410378228866094, 0.07772640787075659, 0.2470150759734752, 0.04475317779874421, -0.07811445342178272, 0.08157673867147283, -0.19594403835109775, 0.18676790729211504, -0.006026130481597371, -0.017644885325512602, 0.050412858847198164, 0.07007496424158405, -0.22137310454562822, 0.09833570270818821, -0.12114988196563314, 0.1144224471236892, 0.16907163411369633, 0.1443607671167292], [0.03388435697528434, 0.002918954743052462, -0.17072255833363228, 0.1451597010114869, -0.12037673333635887, -0.009156449397259538, -0.10102109732492041, -0.17556370249572523, 0.07226638980328243, -0.21550465707264616, 0.11676397781567509, -0.08363696547335912, -0.24251741141628397, 0.012991412793196398, -0.23279278825068736, -0.10437489839583354, 0.1112424479013631, -0.22572131123975742, 0.16369932084940028, -0.24041937268063152, -0.1338879582998486, 0.11284013231576577, -0.09938729544864054, -0.1921209495028426, -0.06240290046415378, -0.10774288672740275, 0.1638336994905978, -0.08656078411531314, 0.152011170905279, 0.20353941511094711, -0.025799131360225158, 0.19758035682617942], [-0.053737264772091765, 0.2243853913877657, -0.19795973255313143, 0.10068171799240261, -0.009951377813174395, -0.06344514484095769, 0.0735319949290705, 0.10930603800133228, -0.24017738374860031, -0.1592618323503519, 0.09889022408618905, 0.09087765273195753, 0.24063923429641315, 0.13815130627134237, 0.2181957672621924, 0.109024437097115, -0.09319285783062936, -0.20388860984489154, 0.1337835443508558, 0.07970831465272654, -0.23263739098946823, -0.07759673448983327, 0.22094377000659107, 0.0077607630173124, -0.026059049460102342, -0.013479315481034976, -0.15295447985530733, -0.05918815850362704, -0.05760354443092553, -0.21610023056746275, 0.14048711637151973, -0.04916140323626669], [0.16851016119496862, 0.16772503951874332, -0.13715250188505285, 0.08628810022304656, -0.020856066181333007, 0.18275731156137573, -0.13521147875315526, 0.09637803498794574, 0.06116872012180888, -0.09563340923663509, -0.18920991839663115, 0.08329495463782796, 0.12680493752981747, -0.08467207767353704, 0.06495662469047786, -0.044990148704941786, 0.11405811267704236, -0.15645654888905042, 0.18844658362765854, -0.09878224108307256, -0.07297750759628975, -0.22777095132285818, -0.20151657575606335, 0.015642094966402866, -0.1086281209597158, 0.1755571640355037, -0.24963987109301466, -0.05274075552968344, -0.07363354053740571, -0.23305873647842754, -0.180555946248328, -0.0502163459240839], [0.0037040945411764637, -0.055051995451135406, 0.021924316236768448, 0.05435015260394343, -0.25233719584902975, -0.024841634763769844, 0.23841177833169563, 0.01655238872156746, 0.09637002998574867, -0.08624657838587661, 0.129680979427838, 0.14346551610037236, 0.018525393594202473, 0.24524271026265604, -0.19441171915704142, -0.233950612841594, 0.1423253400276942, 0.1470150019873552, -0.19573447951233391, -0.11040086139464972, -0.24643673231819507, -0.11027869540515228, 0.1293831600567491, 0.01631559775160759, -0.06865179572326668, -0.057065120399001315, -0.25651255081569263, -0.09333045556901487, 0.08046369324289392, 0.24432585176083332, 0.18061339979493043, -0.24423201611990814], [0.20677511648267274, 0.13399783288659148, 0.14768643436155443, -0.015433873280992848, -0.058505003868133384, -0.10557738549224037, -0.21179923286083577, -0.12859522039746096, -0.11889621412174453, -1.7309743470644498e-05, 0.1162064416288682, -0.005281175068829375, -0.21328672259649326, 0.23635588911004823, 0.21407114080282424, 0.15033000352172854, 0.2530017255748415, 0.017095563520515347, 0.22441836206185636, -0.2048536878533189, -0.07474091746087742, -0.14468455029956204, -0.15955257244649937, -0.17188883893409868, 0.06877864019260498, 0.14820064336700048, 0.032204348734460264, -0.17196723561503494, 0.16310108269057766, 0.07565118669140067, -0.05003856516093148, 0.08063369454049941], [-0.11348404788590473, -0.08459530092931489, 0.21390904197247712, -0.09936954308016883, -0.01842561965991338, 0.1890690243100775, 0.11072107421373727, -0.21248293663195134, -0.16928668221586965, -0.2395919696385119, 0.05877262646419664, -0.020024947459056648, -0.17700210843031797, 0.23546675337427997, 0.008244482747511224, -0.12308532563379569, 0.006637456897839998, 0.08433688630420134, -0.2179573908121694, -0.10631344238407055, 0.14744629106187057, -0.026461648779311005, 0.016449012876965114, -0.02635429560529322, -0.2214374120317144, -0.16006469900187317, -0.03398587426439046, -0.139374064193631, -0.21864275618220347, 0.17841532749621936, 0.24735673708974562, 0.1399323022803661], [0.18456272240881547, -0.13646233255652143, 0.2358686875708866, -0.14478389933521926, 0.2202995290661537, 0.23995389406835843, 0.11353689292033833, 0.2472886412722948, 0.04244471540157069, -0.114489889479527, -0.03916965949293407, 0.05376914061043568, -0.20731038716341907, 0.06881635329848818, 0.23400667807199332, -0.1478456988953576, 0.15354907029824255, 0.1970596695229944, 0.2155237230402404, 0.2376381585976892, 0.003672449390990614, 0.2314818786941827, 0.12093611479426339, -0.1619599808428204, -0.0040198156012762176, 0.11692202877226454, -0.13354921204073456, 0.07729256223837748, 0.09108789218136057, -0.16128936775998776, 0.039956503137221176, 0.12923183782524814], [0.006640954186727355, -0.25105352242343293, -0.238532548579054, -0.06508215637484889, 0.20572997484948924, -0.14258771790778899, 0.07425507573678795, -0.1320697557750568, -0.08173122179737909, 0.18171449743757684, 0.10722074327171408, -0.19521288712004758, -0.02807325006620166, -0.22832652194953482, -0.01657313149457799, 0.08824090950423455, -0.18362326959837683, -0.1107095762247464, -0.05756816969604985, 0.2168215961567158, 0.24013737654386083, -0.23404117459351212, 0.12342575313253665, -0.05630301135425918, -0.04660237620416899, 0.1346119887049239, 0.20241455241004866, 0.2324663015468221, 0.04595726990775208, -0.06439765480419847, 0.15081432530018213, -0.13135076278759666], [0.03933838791597049, -0.07816192827461352, 0.08403726045533665, -0.12375579982462441, -0.16156001433935713, 0.20186474913898508, -0.19202301674305733, 0.010025360103373123, -0.13196861654360015, -0.2239967747559086, -0.23923097696135395, -0.15579717151627848, 0.19008660450735795, -0.10159454958859039, 0.21831158326549882, 0.04839828178845532, -0.025221163119333815, 0.034004280336008025, 0.0038034430765920605, 0.13658407751737495, -0.11558549485962324, -0.08049207596692026, 0.18973953075951586, 0.23081046496330146, 0.20338741867767338, -0.03255951926573937, 0.13297742283129538, -0.004819916849242793, 0.00590774438378098, -0.140500026773869, 0.05206928165667603, -0.16401780620486825], [-0.07654827381619, 0.1699767166601212, -0.13955132802241552, -0.20744578073438838, -0.22182236505285124, 0.2133092918679166, 0.010578165237904353, -0.03764631829763738, 0.16278582900995014, 0.17484026581654366, -0.09147524603497185, 0.10443695329819819, 0.14322441622371812, 0.08491276927913291, -0.181623056523047, 0.19573283377756678, 0.027069305608343044, -0.11518954409463351, -0.0433307895370925, -0.2235380684051693, -0.19332228109513966, 0.125295548662248, -0.2574865805789781, -0.034060793154952106, 0.018822343999587043, -0.21506095852595755, 0.2291335975863029, -0.13056771164184236, -0.09037099834190232, -0.09068962695726707, -0.1282058620026955, -0.25659664627046946], [0.12217915524717433, 0.22575277841400082, -0.13125940564131328, 0.08838761386233063, 0.11403852635985186, 0.16702543562246552, -0.031100057086102136, -0.09112544625259558, -0.07977851346483587, 0.11283864485611937, 0.15086090032261934, -0.15177601799611212, -0.05774373611489766, 0.20851854770110032, 0.146259694587175, 0.25005788311093835, 0.13465945630013834, -0.05935587682797732, 0.03889945323021149, 0.08773235471013376, -0.21708730928291828, 0.015494555054303133, 0.09739890851593531, -0.1585833385566587, 0.1478795318626713, 0.04928495957442011, 0.2191100975188197, -0.22156667265082072, -0.1098269820205774, 0.058374951569121473, -0.09484243809947433, 0.10061557887977504]], "biases": [0.13717847912947193, -0.2064000012923118, 0.014379810427773372, 0.011663046578868783, -0.07293474104501305, 0.20891761046906562, 0.17128213625094688, 0.10633522310825892, 0.11491550905635131, -0.01138864367698294, 0.2028134572357205, 0.10520079879734705, 0.12223883377830877, 0.18851847005203076, -0.12044548303177344, 0.1612542154606574, -0.1446065515582154, -0.08454833241473313, -0.08948699908114406, 0.24697558091978306, 0.17083401505131582, 0.09290066049577014, 0.10594625748714522, 0.03886597666211524, 0.23119035420721157, 0.005949696886849571, -0.06718015522545046, -0.16119792187297508, 0.15087085718227483, 0.12485111533222489, -0.050125693975496134, -0.24488183646644796]}, {"weights": [[0.2969633479542425], [-0.40897308229259294], [0.18085385499405465], [0.4085111789031133], [-0.0456103277016971], [-0.2186275886141635], [0.18221936791081925], [0.2781540018868695], [0.04745290292638832], [0.40580868148560706], [-0.3747604459860199], [0.011642325172999676], [0.1939914536549889], [0.3169187579389453], [-0.26632187473007357], [0.26359567053653643], [0.05254328383273291], [-0.0819470378224402], [-0.30742327608598236], [0.3193119339419737], [-0.28622595521516425], [-0.15480801526922236], [-0.171610497193092], [0.324394346093349], [0.15484405992384875], [0.26083805406562655], [-0.20576630958074582], [0.11369898448473353], [0.06881500084660296], [0.291413713173252], [0.35383495412887356], [-0.40870872158544513]], "biases": [0.15609852589446263]}], "n_layers": 3, "test_metrics": {"confusion_matrix": [[1, 5], [0, 55]], "accuracy": 91.8, "precision": 92.49, "recall": 91.8, "f1": 89.05, "precision_0": 1.0, "recall_0": 0.1667, "f1_0": 0.2857, "precision_1": 0.9167, "recall_1": 1.0, "f1_1": 0.9565}, "X_test": [[46.0, 1.0, 1.0, 124.0, 281.0, 0.0, 2.0, 120.0, 0.0, 1.1, 0.0, 1.0, 3.0], [63.0, 1.0, 0.0, 127.0, 323.0, 0.0, 2.0, 202.0, 0.0, 1.2, 1.0, 1.0, 3.0], [45.0, 1.0, 0.0, 114.0, 177.0, 0.0, 0.0, 151.0, 0.0, 1.6, 2.0, 0.0, 2.0], [41.0, 0.0, 0.0, 107.0, 232.0, 0.0, 0.0, 161.0, 0.0, 0.6, 2.0, 0.0, 2.0], [53.0, 0.0, 1.0, 141.0, 196.0, 0.0, 0.0, 175.0, 0.0, 1.4, 2.0, 1.0, 2.0], [77.0, 1.0, 2.0, 137.0, 243.0, 0.0, 2.0, 149.0, 0.0, 1.0, 2.0, 0.0, 2.0], [41.0, 1.0, 0.0, 128.0, 295.0, 0.0, 2.0, 141.0, 0.0, 1.6, 2.0, 1.0, 2.0], [75.0, 1.0, 0.0, 142.0, 212.0, 0.0, 2.0, 146.0, 1.0, 1.6, 1.0, 3.0, 3.0], [54.0, 0.0, 1.0, 163.0, 195.0, 0.0, 2.0, 151.0, 0.0, 0.1, 1.0, 0.0, 2.0], [59.0, 1.0, 2.0, 104.0, 296.0, 0.0, 2.0, 145.0, 0.0, 1.4, 1.0, 1.0, 3.0], [42.0, 1.0, 0.0, 152.0, 239.0, 0.0, 2.0, 168.0, 0.0, 2.0, 0.0, 0.0, 2.0], [56.0, 0.0, 0.0, 113.0, 237.0, 0.0, 0.0, 132.0, 0.0, 2.0, 2.0, 0.0, 2.0], [60.0, 0.0, 0.0, 135.0, 173.0, 0.0, 1.0, 134.0, 0.0, 1.2, 1.0, 0.0, 2.0], [76.0, 0.0, 3.0, 146.0, 263.0, 0.0, 2.0, 127.0, 0.0, 0.2, 2.0, 1.0, 2.0], [45.0, 1.0, 0.0, 138.0, 216.0, 0.0, 0.0, 150.0, 0.0, 0.2, 2.0, 0.0, 3.0], [50.0, 1.0, 0.0, 163.0, 303.0, 0.0, 2.0, 169.0, 0.0, 1.0, 2.0, 0.0, 3.0], [53.0, 0.0, 0.0, 130.0, 199.0, 0.0, 2.0, 118.0, 1.0, 0.7, 2.0, 1.0, 1.0], [48.0, 1.0, 2.0, 126.0, 330.0, 0.0, 2.0, 138.0, 0.0, 0.3, 2.0, 0.0, 2.0], [51.0, 0.0, 0.0, 131.0, 183.0, 0.0, 0.0, 197.0, 0.0, 1.3, 0.0, 3.0, 3.0], [52.0, 0.0, 0.0, 112.0, 258.0, 0.0, 2.0, 202.0, 0.0, 0.4, 1.0, 0.0, 3.0], [62.0, 0.0, 2.0, 114.0, 296.0, 0.0, 2.0, 125.0, 0.0, 0.2, 2.0, 0.0, 3.0], [37.0, 0.0, 0.0, 139.0, 249.0, 0.0, 2.0, 171.0, 1.0, 0.4, 2.0, 1.0, 3.0], [49.0, 0.0, 2.0, 135.0, 212.0, 1.0, 2.0, 157.0, 0.0, 0.4, 1.0, 1.0, 2.0], [42.0, 0.0, 2.0, 139.0, 205.0, 0.0, 0.0, 177.0, 0.0, 0.0, 2.0, 0.0, 2.0], [53.0, 0.0, 0.0, 126.0, 274.0, 0.0, 2.0, 142.0, 0.0, 0.6, 1.0, 0.0, 1.0], [62.0, 1.0, 0.0, 142.0, 309.0, 0.0, 0.0, 90.0, 0.0, 1.3, 2.0, 1.0, 2.0], [53.0, 1.0, 1.0, 101.0, 245.0, 0.0, 0.0, 154.0, 0.0, 1.3, 2.0, 2.0, 2.0], [68.0, 0.0, 0.0, 134.0, 354.0, 0.0, 2.0, 124.0, 0.0, 0.9, 2.0, 0.0, 2.0], [57.0, 1.0, 2.0, 149.0, 300.0, 0.0, 0.0, 185.0, 0.0, 1.2, 2.0, 0.0, 2.0], [64.0, 0.0, 2.0, 143.0, 258.0, 0.0, 2.0, 161.0, 1.0, 2.1, 1.0, 2.0, 2.0], [50.0, 1.0, 0.0, 131.0, 318.0, 0.0, 2.0, 145.0, 0.0, 0.6, 2.0, 1.0, 3.0], [46.0, 0.0, 1.0, 118.0, 308.0, 0.0, 0.0, 155.0, 0.0, 2.1, 1.0, 2.0, 3.0], [53.0, 1.0, 2.0, 150.0, 279.0, 0.0, 0.0, 152.0, 1.0, 1.4, 2.0, 0.0, 1.0], [60.0, 1.0, 2.0, 168.0, 178.0, 0.0, 2.0, 129.0, 1.0, 3.4, 2.0, 0.0, 3.0], [55.0, 1.0, 0.0, 143.0, 235.0, 1.0, 2.0, 151.0, 0.0, 0.2, 1.0, 0.0, 3.0], [60.0, 1.0, 0.0, 104.0, 341.0, 1.0, 0.0, 131.0, 1.0, 1.7, 1.0, 0.0, 2.0], [56.0, 1.0, 3.0, 150.0, 268.0, 0.0, 2.0, 112.0, 0.0, 0.2, 2.0, 0.0, 2.0], [52.0, 1.0, 0.0, 149.0, 317.0, 0.0, 1.0, 174.0, 0.0, 0.3, 0.0, 0.0, 2.0], [67.0, 1.0, 0.0, 130.0, 268.0, 0.0, 2.0, 130.0, 0.0, 0.2, 0.0, 0.0, 3.0], [52.0, 0.0, 0.0, 132.0, 126.0, 0.0, 0.0, 138.0, 0.0, 1.3, 1.0, 2.0, 3.0], [60.0, 0.0, 0.0, 113.0, 331.0, 0.0, 0.0, 190.0, 0.0, 1.3, 1.0, 0.0, 3.0], [50.0, 1.0, 0.0, 117.0, 207.0, 0.0, 0.0, 156.0, 0.0, 0.6, 1.0, 2.0, 3.0], [50.0, 1.0, 0.0, 125.0, 262.0, 1.0, 2.0, 161.0, 1.0, 0.6, 1.0, 1.0, 3.0], [61.0, 0.0, 2.0, 123.0, 215.0, 0.0, 2.0, 126.0, 0.0, 0.5, 1.0, 0.0, 3.0], [53.0, 1.0, 0.0, 130.0, 228.0, 1.0, 2.0, 124.0, 1.0, 0.4, 1.0, 2.0, 2.0], [55.0, 0.0, 1.0, 163.0, 263.0, 0.0, 0.0, 137.0, 0.0, 0.4, 2.0, 2.0, 2.0], [62.0, 1.0, 2.0, 163.0, 318.0, 0.0, 2.0, 134.0, 1.0, 0.5, 2.0, 2.0, 3.0], [69.0, 1.0, 2.0, 131.0, 126.0, 0.0, 2.0, 163.0, 1.0, 1.4, 2.0, 0.0, 1.0], [59.0, 1.0, 0.0, 108.0, 270.0, 0.0, 2.0, 104.0, 1.0, 1.3, 2.0, 0.0, 2.0], [57.0, 1.0, 1.0, 122.0, 263.0, 0.0, 2.0, 135.0, 1.0, 1.0, 0.0, 0.0, 2.0], [59.0, 1.0, 0.0, 111.0, 189.0, 0.0, 0.0, 142.0, 1.0, 0.8, 1.0, 2.0, 2.0], [49.0, 0.0, 0.0, 136.0, 242.0, 0.0, 0.0, 121.0, 0.0, 0.9, 1.0, 1.0, 2.0], [36.0, 0.0, 0.0, 149.0, 243.0, 0.0, 2.0, 147.0, 0.0, 3.8, 2.0, 0.0, 2.0], [59.0, 1.0, 1.0, 147.0, 266.0, 0.0, 0.0, 177.0, 1.0, 1.2, 2.0, 0.0, 2.0], [64.0, 1.0, 0.0, 127.0, 375.0, 0.0, 0.0, 146.0, 0.0, 0.3, 2.0, 0.0, 2.0], [43.0, 1.0, 3.0, 121.0, 250.0, 0.0, 0.0, 145.0, 1.0, 0.4, 2.0, 0.0, 2.0], [54.0, 1.0, 0.0, 142.0, 177.0, 0.0, 2.0, 131.0, 1.0, 1.1, 2.0, 2.0, 2.0], [61.0, 1.0, 1.0, 141.0, 259.0, 0.0, 0.0, 179.0, 0.0, 0.0, 2.0, 1.0, 3.0], [44.0, 1.0, 0.0, 139.0, 274.0, 0.0, 2.0, 153.0, 1.0, 0.6, 2.0, 0.0, 2.0], [60.0, 1.0, 0.0, 141.0, 237.0, 0.0, 0.0, 182.0, 1.0, 0.2, 1.0, 1.0, 3.0], [54.0, 1.0, 0.0, 120.0, 248.0, 0.0, 2.0, 123.0, 1.0, 0.1, 1.0, 0.0, 3.0]], "y_test": [1, 1, 0, 0, 0, 1, 1, 1, 1, 1, 1, 1, 1, 1, 1, 1, 1, 1, 1, 0, 1, 1, 0, 0, 1, 1, 1, 1, 1, 1, 1, 1, 1, 1, 1, 1, 1, 1, 1, 1, 1, 1, 1, 1, 1, 1, 1, 1, 1, 1, 1, 1, 1, 1, 1, 1, 1, 1, 1, 1, 1], "y_pred": [1, 1, 1, 0, 1, 1, 1, 1, 1, 1, 1, 1, 1, 1, 1, 1, 1, 1, 1, 1, 1, 1, 1, 1, 1, 1, 1, 1, 1, 1, 1, 1, 1, 1, 1, 1, 1, 1, 1, 1, 1, 1, 1, 1, 1, 1, 1, 1, 1, 1, 1, 1, 1, 1, 1, 1, 1, 1, 1, 1, 1], "y_prob": [0.8626139533053521, 0.8541217868298125, 0.5961643478902261, 0.4637145695601126, 0.5794326134339242, 0.7017310142228949, 0.6975211523989534, 0.7926189244510994, 0.6405993145985788, 0.8052086168840356, 0.8198164410370136, 0.5329087569591957, 0.5727720823194651, 0.7327075256419473, 0.6609698415801142, 0.786639216893108, 0.646214913324395, 0.7817837984298581, 0.7801513467459, 0.7084947075978231, 0.684872225825167, 0.7379626142534048, 0.7116242855514897, 0.507986188286282, 0.6560334436666855, 0.725712027974315, 0.5724534742488736, 0.691476618128631, 0.7009803702690602, 0.8134916788473441, 0.810719051051411, 0.6136825969174098, 0.7861818379840937, 0.8367621820769116, 0.7848707369642995, 0.8284417768149538, 0.813568335006231, 0.7569761664250726, 0.867169960809183, 0.533911455130927, 0.6724928508744491, 0.6912127865409687, 0.8900214995428353, 0.6279906109342095, 0.8424685126363786, 0.6008709400267693, 0.927078806251692, 0.6331277227090986, 0.8170959874836011, 0.824109295326393, 0.7186929432195288, 0.5439283389603313, 0.7945058480126708, 0.7589305522908539, 0.7875643230223239, 0.6989246722070275, 0.7096265744899698, 0.6881813880318782, 0.7874580502447336, 0.8438723226066207, 0.8908785209450734]}}